<?xml version="1.0"?>
<opencv_storage>
<stage8>
  <maxWeakCount>7</maxWeakCount>
  <stageThreshold>-1.5119287967681885e+00</stageThreshold>
  <weakClassifiers>
    <_>
      <internalNodes>
        0 -1 374583 -3.6170771345496178e-03</internalNodes>
      <leafValues>
        -8.7719298899173737e-02 -8.2846003770828247e-01</leafValues></_>
    <_>
      <internalNodes>
        0 -1 299906 7.0924153551459312e-03</internalNodes>
      <leafValues>
        -6.0908156633377075e-01 1.9701614975929260e-01</leafValues></_>
    <_>
      <internalNodes>
        0 -1 344967 -4.4440524652600288e-03</internalNodes>
      <leafValues>
        2.5992384552955627e-01 -6.2502455711364746e-01</leafValues></_>
    <_>
      <internalNodes>
        0 -1 36329 4.1583165875636041e-04</internalNodes>
      <leafValues>
        -4.4153895974159241e-01 3.7965708971023560e-01</leafValues></_>
    <_>
      <internalNodes>
        0 -1 3656 3.2444443786516786e-04</internalNodes>
      <leafValues>
        3.4210115671157837e-01 -4.8654380440711975e-01</leafValues></_>
    <_>
      <internalNodes>
        0 -1 66668 4.7062360681593418e-04</internalNodes>
      <leafValues>
        -4.4744956493377686e-01 5.1454418897628784e-01</leafValues></_>
    <_>
      <internalNodes>
        0 -1 261884 3.8821985945105553e-03</internalNodes>
      <leafValues>
        2.8320947289466858e-01 -6.0861974954605103e-01</leafValues></_></weakClassifiers></stage8>
</opencv_storage>
