<?xml version="1.0"?>
<opencv_storage>
<stage10>
  <maxWeakCount>7</maxWeakCount>
  <stageThreshold>-1.5854545831680298e+00</stageThreshold>
  <weakClassifiers>
    <_>
      <internalNodes>
        0 -1 381266 4.2548961937427521e-02</internalNodes>
      <leafValues>
        -7.8985506296157837e-01 3.3333334326744080e-01</leafValues></_>
    <_>
      <internalNodes>
        0 -1 798 1.8184774089604616e-03</internalNodes>
      <leafValues>
        -5.5665746331214905e-02 -8.2251781225204468e-01</leafValues></_>
    <_>
      <internalNodes>
        0 -1 328175 -1.8565629143267870e-03</internalNodes>
      <leafValues>
        -6.5790212154388428e-01 1.3907565176486969e-01</leafValues></_>
    <_>
      <internalNodes>
        0 -1 373135 -8.0704936408437788e-05</internalNodes>
      <leafValues>
        3.4404969215393066e-01 -3.5232883691787720e-01</leafValues></_>
    <_>
      <internalNodes>
        0 -1 101418 -2.6695342967286706e-04</internalNodes>
      <leafValues>
        4.2381280660629272e-01 -3.1965851783752441e-01</leafValues></_>
    <_>
      <internalNodes>
        0 -1 294809 1.6745961038395762e-03</internalNodes>
      <leafValues>
        1.8648271262645721e-01 -7.7080428600311279e-01</leafValues></_>
    <_>
      <internalNodes>
        0 -1 407147 2.8648900333791971e-03</internalNodes>
      <leafValues>
        -3.2303127646446228e-01 4.4129040837287903e-01</leafValues></_></weakClassifiers></stage10>
</opencv_storage>
