<?xml version="1.0"?>
<opencv_storage>
<stage7>
  <maxWeakCount>5</maxWeakCount>
  <stageThreshold>-1.2118324041366577e+00</stageThreshold>
  <weakClassifiers>
    <_>
      <internalNodes>
        0 -1 299658 2.9096938669681549e-02</internalNodes>
      <leafValues>
        -7.9710143804550171e-01 5.5555558204650879e-01</leafValues></_>
    <_>
      <internalNodes>
        0 -1 294085 -2.5169267319142818e-03</internalNodes>
      <leafValues>
        9.1302506625652313e-02 -6.7493444681167603e-01</leafValues></_>
    <_>
      <internalNodes>
        0 -1 3651 -5.8799015823751688e-04</internalNodes>
      <leafValues>
        -8.8825112581253052e-01 1.5292651951313019e-01</leafValues></_>
    <_>
      <internalNodes>
        0 -1 199867 5.2868272177875042e-04</internalNodes>
      <leafValues>
        -4.0915158390998840e-01 4.0789097547531128e-01</leafValues></_>
    <_>
      <internalNodes>
        0 -1 169909 1.5349382534623146e-02</internalNodes>
      <leafValues>
        -2.2392587363719940e-01 7.9136919975280762e-01</leafValues></_></weakClassifiers></stage7>
</opencv_storage>
